digraph Tree {
node [shape=box] ;
0 [label="X[33] <= 0.5\nentropy = 0.7963\nsamples = 9769\nvalue = [7417, 2352]"] ;
1 [label="X[3] <= 7139.5\nentropy = 0.3443\nsamples = 5287\nvalue = [4947, 340]"] ;
0 -> 1 [labeldistance=2.5, labelangle=45, headlabel="True"] ;
2 [label="X[5] <= 42.5\nentropy = 0.2776\nsamples = 5194\nvalue = [4945, 249]"] ;
1 -> 2 ;
3 [label="X[0] <= 33.5\nentropy = 0.1705\nsamples = 4143\nvalue = [4038, 105]"] ;
2 -> 3 ;
4 [label="entropy = 0.045\nsamples = 2426\nvalue = [2414, 12]"] ;
3 -> 4 ;
5 [label="entropy = 0.3038\nsamples = 1717\nvalue = [1624, 93]"] ;
3 -> 5 ;
6 [label="X[2] <= 12.5\nentropy = 0.5764\nsamples = 1051\nvalue = [907, 144]"] ;
2 -> 6 ;
7 [label="entropy = 0.4106\nsamples = 716\nvalue = [657, 59]"] ;
6 -> 7 ;
8 [label="entropy = 0.8171\nsamples = 335\nvalue = [250, 85]"] ;
6 -> 8 ;
9 [label="X[3] <= 8028.5\nentropy = 0.1498\nsamples = 93\nvalue = [2, 91]"] ;
1 -> 9 ;
10 [label="X[2] <= 11.0\nentropy = 0.9183\nsamples = 6\nvalue = [2, 4]"] ;
9 -> 10 ;
11 [label="entropy = 0.0\nsamples = 2\nvalue = [2, 0]"] ;
10 -> 11 ;
12 [label="entropy = 0.0\nsamples = 4\nvalue = [0, 4]"] ;
10 -> 12 ;
13 [label="entropy = 0.0\nsamples = 87\nvalue = [0, 87]"] ;
9 -> 13 ;
14 [label="X[2] <= 12.5\nentropy = 0.9925\nsamples = 4482\nvalue = [2470, 2012]"] ;
0 -> 14 [labeldistance=2.5, labelangle=-45, headlabel="False"] ;
15 [label="X[3] <= 5095.5\nentropy = 0.9201\nsamples = 3178\nvalue = [2113, 1065]"] ;
14 -> 15 ;
16 [label="X[2] <= 8.5\nentropy = 0.8826\nsamples = 3016\nvalue = [2108, 908]"] ;
15 -> 16 ;
17 [label="entropy = 0.5415\nsamples = 515\nvalue = [451, 64]"] ;
16 -> 17 ;
18 [label="entropy = 0.9224\nsamples = 2501\nvalue = [1657, 844]"] ;
16 -> 18 ;
19 [label="X[0] <= 61.5\nentropy = 0.1987\nsamples = 162\nvalue = [5, 157]"] ;
15 -> 19 ;
20 [label="entropy = 0.0\nsamples = 147\nvalue = [0, 147]"] ;
19 -> 20 ;
21 [label="entropy = 0.9183\nsamples = 15\nvalue = [5, 10]"] ;
19 -> 21 ;
22 [label="X[3] <= 5095.5\nentropy = 0.8468\nsamples = 1304\nvalue = [357, 947]"] ;
14 -> 22 ;
23 [label="X[4] <= 1794.0\nentropy = 0.9064\nsamples = 1106\nvalue = [356, 750]"] ;
22 -> 23 ;
24 [label="entropy = 0.9395\nsamples = 988\nvalue = [352, 636]"] ;
23 -> 24 ;
25 [label="entropy = 0.2136\nsamples = 118\nvalue = [4, 114]"] ;
23 -> 25 ;
26 [label="X[0] <= 85.0\nentropy = 0.0458\nsamples = 198\nvalue = [1, 197]"] ;
22 -> 26 ;
27 [label="entropy = 0.0\nsamples = 196\nvalue = [0, 196]"] ;
26 -> 27 ;
28 [label="entropy = 1.0\nsamples = 2\nvalue = [1, 1]"] ;
26 -> 28 ;
}